svm_type c_svc
kernel_type rbf
gamma 0.5
nr_class 3
total_sv 11
rho -0.575283 0.105714 0.18015
label 1 2 3
nr_sv 4 4 3
SV
2 0.6321048068178514 1:0.506092 2:0.802356 3:0.192953 4:0.138537 6:0.812499 7:0.11997 8:0.249602 9:0.0246802 
2 0 1:0.211158 2:0.802356 3:0.192953 4:0.0137039 6:0.812499 7:0.11997 8:0.249602 9:0.0302288 
1.900130192502594 0.4870611689371471 1:0.00191671 6:0.685981 
1.723970540035487 0.6709805979295089 1:0.135057 2:0.727425 3:0.18835 6:0.64358 7:0.153267 8:0.176277 9:0.00369305 
-2 0 1:0.425642 2:0.546318 3:0.236496 4:0.098921 6:0.776211 7:0.0201844 8:0.222379 9:0.0302288 
-2 0 1:0.506092 2:0.453477 3:0.236496 4:0.138537 6:0.776211 7:0.0145917 8:0.156752 9:0.0246802 
-1.624100732538081 0.2748900783054873 1:1 2:0.546318 3:0.181989 4:0.0093688 6:1 7:0.0201844 8:0.222379 9:0.0316993 
-2 1.328849357774262 1:0.425642 2:0.546318 3:0.236496 4:0.098921 6:0.776211 7:0.0201844 8:0.222379 9:0.0302288 
-0.2880424552570461 -0.3226850057804253 2:0.710685 3:1 4:0.60217 7:0.511716 8:0.787393 9:0.296654 
-0.5946330668443635 -0.5415859133898226 2:1 3:1 4:1 7:0.187397 8:1 9:1 
-0.9074710515830978 -0.739468516909501 2:0.708777 3:1 4:0.283156 7:1 8:0.712159 9:0.194893 
